digraph Tree {
node [shape=box, style="filled, rounded", color="black", fontname="helvetica"] ;
edge [fontname="helvetica"] ;
0 [label="petal width (cm) <= 1.75\ngini = 0.65\nsamples = 103\nvalue = [36, 52, 62]\nclass = virginica", fillcolor="#f2ebfc"] ;
1 [label="petal length (cm) <= 2.45\ngini = 0.53\nsamples = 67\nvalue = [36, 51, 4]\nclass = versicolor", fillcolor="#c9f8dd"] ;
0 -> 1 [labeldistance=2.5, labelangle=45, headlabel="True"] ;
2 [label="gini = 0.0\nsamples = 30\nvalue = [36, 0, 0]\nclass = setosa", fillcolor="#e58139"] ;
1 -> 2 ;
3 [label="petal length (cm) <= 5.05\ngini = 0.13\nsamples = 37\nvalue = [0, 51, 4]\nclass = versicolor", fillcolor="#49e78b"] ;
1 -> 3 ;
4 [label="sepal width (cm) <= 2.55\ngini = 0.07\nsamples = 34\nvalue = [0, 50, 2]\nclass = versicolor", fillcolor="#41e686"] ;
3 -> 4 ;
5 [label="petal length (cm) <= 4.45\ngini = 0.22\nsamples = 11\nvalue = [0, 14, 2]\nclass = versicolor", fillcolor="#55e993"] ;
4 -> 5 ;
6 [label="gini = 0.0\nsamples = 9\nvalue = [0, 14, 0]\nclass = versicolor", fillcolor="#39e581"] ;
5 -> 6 ;
7 [label="gini = 0.0\nsamples = 2\nvalue = [0, 0, 2]\nclass = virginica", fillcolor="#8139e5"] ;
5 -> 7 ;
8 [label="gini = 0.0\nsamples = 23\nvalue = [0, 36, 0]\nclass = versicolor", fillcolor="#39e581"] ;
4 -> 8 ;
9 [label="sepal width (cm) <= 2.65\ngini = 0.44\nsamples = 3\nvalue = [0, 1, 2]\nclass = virginica", fillcolor="#c09cf2"] ;
3 -> 9 ;
10 [label="gini = 0.0\nsamples = 1\nvalue = [0, 0, 1]\nclass = virginica", fillcolor="#8139e5"] ;
9 -> 10 ;
11 [label="sepal width (cm) <= 2.75\ngini = 0.5\nsamples = 2\nvalue = [0, 1, 1]\nclass = versicolor", fillcolor="#ffffff"] ;
9 -> 11 ;
12 [label="gini = 0.0\nsamples = 1\nvalue = [0, 1, 0]\nclass = versicolor", fillcolor="#39e581"] ;
11 -> 12 ;
13 [label="gini = 0.0\nsamples = 1\nvalue = [0, 0, 1]\nclass = virginica", fillcolor="#8139e5"] ;
11 -> 13 ;
14 [label="petal length (cm) <= 4.85\ngini = 0.03\nsamples = 36\nvalue = [0, 1, 58]\nclass = virginica", fillcolor="#833ce5"] ;
0 -> 14 [labeldistance=2.5, labelangle=-45, headlabel="False"] ;
15 [label="sepal width (cm) <= 3.1\ngini = 0.38\nsamples = 3\nvalue = [0, 1, 3]\nclass = virginica", fillcolor="#ab7bee"] ;
14 -> 15 ;
16 [label="gini = 0.0\nsamples = 2\nvalue = [0, 0, 3]\nclass = virginica", fillcolor="#8139e5"] ;
15 -> 16 ;
17 [label="gini = 0.0\nsamples = 1\nvalue = [0, 1, 0]\nclass = versicolor", fillcolor="#39e581"] ;
15 -> 17 ;
18 [label="gini = 0.0\nsamples = 33\nvalue = [0, 0, 55]\nclass = virginica", fillcolor="#8139e5"] ;
14 -> 18 ;
}